<?xml version="1.0"?>
<opencv_storage>
<stage0>
  <maxWeakCount>10</maxWeakCount>
  <stageThreshold>-2.0567746162414551e+00</stageThreshold>
  <weakClassifiers>
    <_>
      <internalNodes>
        0 -1 12383 1.2514315545558929e-01</internalNodes>
      <leafValues>
        -8.7204241752624512e-01 4.9308755993843079e-01</leafValues></_>
    <_>
      <internalNodes>
        0 -1 57254 -1.2612390331923962e-02</internalNodes>
      <leafValues>
        4.5544527471065521e-02 -8.8236886262893677e-01</leafValues></_>
    <_>
      <internalNodes>
        0 -1 52476 3.6828285083174706e-03</internalNodes>
      <leafValues>
        -6.1599236726760864e-01 2.4566626548767090e-01</leafValues></_>
    <_>
      <internalNodes>
        0 -1 64478 6.1831019818782806e-02</internalNodes>
      <leafValues>
        -2.3402547836303711e-01 5.0237005949020386e-01</leafValues></_>
    <_>
      <internalNodes>
        0 -1 54483 -1.4772666618227959e-02</internalNodes>
      <leafValues>
        5.9507238864898682e-01 -2.0196193456649780e-01</leafValues></_>
    <_>
      <internalNodes>
        0 -1 53217 -8.8786764536052942e-05</internalNodes>
      <leafValues>
        1.9503642618656158e-01 -6.4705854654312134e-01</leafValues></_>
    <_>
      <internalNodes>
        0 -1 46935 -1.2731699272990227e-02</internalNodes>
      <leafValues>
        5.8126366138458252e-01 -1.5473222732543945e-01</leafValues></_>
    <_>
      <internalNodes>
        0 -1 46940 5.5510224774479866e-03</internalNodes>
      <leafValues>
        -2.8351482748985291e-01 4.3684643507003784e-01</leafValues></_>
    <_>
      <internalNodes>
        0 -1 67888 -2.0974554121494293e-02</internalNodes>
      <leafValues>
        5.2009069919586182e-01 -1.6439196467399597e-01</leafValues></_>
    <_>
      <internalNodes>
        0 -1 29414 -4.1786875575780869e-02</internalNodes>
      <leafValues>
        5.2692246437072754e-01 -1.8216037750244141e-01</leafValues></_></weakClassifiers></stage0>
</opencv_storage>
