<?xml version="1.0"?>
<opencv_storage>
<stage4>
  <maxWeakCount>52</maxWeakCount>
  <stageThreshold>-2.0022253990173340e+00</stageThreshold>
  <weakClassifiers>
    <_>
      <internalNodes>
        0 -1 13475 -3.4380656480789185e-01</internalNodes>
      <leafValues>
        -2.1257485449314117e-01 -7.8035628795623779e-01</leafValues></_>
    <_>
      <internalNodes>
        0 -1 46384 1.0694164782762527e-01</internalNodes>
      <leafValues>
        -3.0614483356475830e-01 2.5820669531822205e-01</leafValues></_>
    <_>
      <internalNodes>
        0 -1 66927 4.4686030596494675e-02</internalNodes>
      <leafValues>
        -9.9972426891326904e-02 3.9503422379493713e-01</leafValues></_>
    <_>
      <internalNodes>
        0 -1 54065 -1.1620143195614219e-03</internalNodes>
      <leafValues>
        -4.0950018167495728e-01 8.1784844398498535e-02</leafValues></_>
    <_>
      <internalNodes>
        0 -1 75296 6.0664266347885132e-02</internalNodes>
      <leafValues>
        1.2935042381286621e-01 -4.3583783507347107e-01</leafValues></_>
    <_>
      <internalNodes>
        0 -1 25386 3.8789538666605949e-03</internalNodes>
      <leafValues>
        -1.2148326635360718e-01 3.0834409594535828e-01</leafValues></_>
    <_>
      <internalNodes>
        0 -1 32373 -1.2890947982668877e-02</internalNodes>
      <leafValues>
        3.4828862547874451e-01 -9.8076321184635162e-02</leafValues></_>
    <_>
      <internalNodes>
        0 -1 58125 1.5204150695353746e-03</internalNodes>
      <leafValues>
        9.2105433344841003e-02 -4.6255519986152649e-01</leafValues></_>
    <_>
      <internalNodes>
        0 -1 72580 7.0061553269624710e-03</internalNodes>
      <leafValues>
        -1.0036612302064896e-01 3.7541982531547546e-01</leafValues></_>
    <_>
      <internalNodes>
        0 -1 33671 1.0959062725305557e-02</internalNodes>
      <leafValues>
        -1.0995057970285416e-01 3.0095580220222473e-01</leafValues></_>
    <_>
      <internalNodes>
        0 -1 39367 -1.2566915713250637e-02</internalNodes>
      <leafValues>
        2.9388755559921265e-01 -9.1389894485473633e-02</leafValues></_>
    <_>
      <internalNodes>
        0 -1 67497 5.9251314960420132e-03</internalNodes>
      <leafValues>
        -1.0772519558668137e-01 2.5801730155944824e-01</leafValues></_>
    <_>
      <internalNodes>
        0 -1 21751 1.0840138420462608e-03</internalNodes>
      <leafValues>
        6.7892037332057953e-02 -4.1173785924911499e-01</leafValues></_>
    <_>
      <internalNodes>
        0 -1 21751 -3.3968494972214103e-04</internalNodes>
      <leafValues>
        -3.2219401001930237e-01 1.1514462530612946e-01</leafValues></_>
    <_>
      <internalNodes>
        0 -1 64156 -5.5914148688316345e-03</internalNodes>
      <leafValues>
        2.2582662105560303e-01 -1.2585164606571198e-01</leafValues></_>
    <_>
      <internalNodes>
        0 -1 61750 9.8582834005355835e-02</internalNodes>
      <leafValues>
        -1.0479588806629181e-01 2.9215544462203979e-01</leafValues></_>
    <_>
      <internalNodes>
        0 -1 67265 2.8427750803530216e-03</internalNodes>
      <leafValues>
        -1.1226970702409744e-01 2.5952693819999695e-01</leafValues></_>
    <_>
      <internalNodes>
        0 -1 58230 -1.2939104344695807e-03</internalNodes>
      <leafValues>
        -4.6344524621963501e-01 5.6400932371616364e-02</leafValues></_>
    <_>
      <internalNodes>
        0 -1 58109 8.8114640675485134e-04</internalNodes>
      <leafValues>
        8.5499703884124756e-02 -3.1909477710723877e-01</leafValues></_>
    <_>
      <internalNodes>
        0 -1 49604 -7.8202188014984131e-03</internalNodes>
      <leafValues>
        2.3674398660659790e-01 -1.2224780768156052e-01</leafValues></_>
    <_>
      <internalNodes>
        0 -1 24506 3.0798020306974649e-03</internalNodes>
      <leafValues>
        -9.5657624304294586e-02 3.0887216329574585e-01</leafValues></_>
    <_>
      <internalNodes>
        0 -1 17867 -3.8244933821260929e-03</internalNodes>
      <leafValues>
        2.6707828044891357e-01 -1.1555427312850952e-01</leafValues></_>
    <_>
      <internalNodes>
        0 -1 32622 -8.8896267116069794e-03</internalNodes>
      <leafValues>
        1.6347229480743408e-01 -1.6046223044395447e-01</leafValues></_>
    <_>
      <internalNodes>
        0 -1 52445 -3.4053161740303040e-02</internalNodes>
      <leafValues>
        -6.5483891963958740e-01 3.9447337388992310e-02</leafValues></_>
    <_>
      <internalNodes>
        0 -1 50973 -1.4930909499526024e-02</internalNodes>
      <leafValues>
        2.8895950317382812e-01 -9.2296980321407318e-02</leafValues></_>
    <_>
      <internalNodes>
        0 -1 29657 1.2113638967275620e-01</internalNodes>
      <leafValues>
        -1.2469156086444855e-01 2.6044854521751404e-01</leafValues></_>
    <_>
      <internalNodes>
        0 -1 54477 4.8081278800964355e-02</internalNodes>
      <leafValues>
        -7.6640546321868896e-02 3.3757898211479187e-01</leafValues></_>
    <_>
      <internalNodes>
        0 -1 49815 -3.2781690359115601e-02</internalNodes>
      <leafValues>
        2.5114604830741882e-01 -1.0472436249256134e-01</leafValues></_>
    <_>
      <internalNodes>
        0 -1 75825 3.0725537799298763e-03</internalNodes>
      <leafValues>
        -8.6491942405700684e-02 2.9718568921089172e-01</leafValues></_>
    <_>
      <internalNodes>
        0 -1 1 -3.1424756161868572e-04</internalNodes>
      <leafValues>
        -2.7028390765190125e-01 1.0405553132295609e-01</leafValues></_>
    <_>
      <internalNodes>
        0 -1 1 9.6051988657563925e-04</internalNodes>
      <leafValues>
        7.2119854390621185e-02 -4.1882118582725525e-01</leafValues></_>
    <_>
      <internalNodes>
        0 -1 58375 9.8696881905198097e-03</internalNodes>
      <leafValues>
        -9.7981683909893036e-02 2.4785253405570984e-01</leafValues></_>
    <_>
      <internalNodes>
        0 -1 64900 -3.2289202790707350e-03</internalNodes>
      <leafValues>
        -6.2630689144134521e-01 4.0480598807334900e-02</leafValues></_>
    <_>
      <internalNodes>
        0 -1 64104 -8.6723460117354989e-04</internalNodes>
      <leafValues>
        2.3879948258399963e-01 -9.7905352711677551e-02</leafValues></_>
    <_>
      <internalNodes>
        0 -1 49201 3.2529374584555626e-03</internalNodes>
      <leafValues>
        5.7297028601169586e-02 -4.0317180752754211e-01</leafValues></_>
    <_>
      <internalNodes>
        0 -1 19861 -2.0518057048320770e-02</internalNodes>
      <leafValues>
        -4.4376170635223389e-01 5.2337009459733963e-02</leafValues></_>
    <_>
      <internalNodes>
        0 -1 39365 3.4124404191970825e-03</internalNodes>
      <leafValues>
        -1.2291670590639114e-01 1.9292055070400238e-01</leafValues></_>
    <_>
      <internalNodes>
        0 -1 27334 -3.5539917647838593e-02</internalNodes>
      <leafValues>
        2.5047010183334351e-01 -1.0197927057743073e-01</leafValues></_>
    <_>
      <internalNodes>
        0 -1 56099 1.7054056515917182e-03</internalNodes>
      <leafValues>
        -1.1180047690868378e-01 2.2028978168964386e-01</leafValues></_>
    <_>
      <internalNodes>
        0 -1 28318 -2.1875842940062284e-03</internalNodes>
      <leafValues>
        -2.1295289695262909e-01 1.1224212497472763e-01</leafValues></_>
    <_>
      <internalNodes>
        0 -1 32706 1.7672128975391388e-02</internalNodes>
      <leafValues>
        4.3449874967336655e-02 -5.2294367551803589e-01</leafValues></_>
    <_>
      <internalNodes>
        0 -1 71265 -4.9110595136880875e-04</internalNodes>
      <leafValues>
        -2.1597075462341309e-01 1.0778627544641495e-01</leafValues></_>
    <_>
      <internalNodes>
        0 -1 75236 -1.3117741327732801e-03</internalNodes>
      <leafValues>
        -2.7306577563285828e-01 9.4988957047462463e-02</leafValues></_>
    <_>
      <internalNodes>
        0 -1 42551 3.0169785022735596e-03</internalNodes>
      <leafValues>
        -1.2799093127250671e-01 1.9653002917766571e-01</leafValues></_>
    <_>
      <internalNodes>
        0 -1 43287 -1.6361255198717117e-02</internalNodes>
      <leafValues>
        -5.3500777482986450e-01 5.0320688635110855e-02</leafValues></_>
    <_>
      <internalNodes>
        0 -1 26147 2.5164037942886353e-03</internalNodes>
      <leafValues>
        -8.9677736163139343e-02 2.7970013022422791e-01</leafValues></_>
    <_>
      <internalNodes>
        0 -1 32328 1.0797807481139898e-03</internalNodes>
      <leafValues>
        -8.8458545506000519e-02 2.6605603098869324e-01</leafValues></_>
    <_>
      <internalNodes>
        0 -1 6641 -5.9464186429977417e-02</internalNodes>
      <leafValues>
        2.2661595046520233e-01 -9.8328821361064911e-02</leafValues></_>
    <_>
      <internalNodes>
        0 -1 23575 7.6287938281893730e-03</internalNodes>
      <leafValues>
        -1.2121418118476868e-01 1.9856554269790649e-01</leafValues></_>
    <_>
      <internalNodes>
        0 -1 53885 7.4711116030812263e-03</internalNodes>
      <leafValues>
        3.6655779927968979e-02 -6.3555741310119629e-01</leafValues></_>
    <_>
      <internalNodes>
        0 -1 17328 -3.3560708165168762e-02</internalNodes>
      <leafValues>
        5.2508366107940674e-01 -4.8141613602638245e-02</leafValues></_>
    <_>
      <internalNodes>
        0 -1 44723 1.8156238365918398e-03</internalNodes>
      <leafValues>
        -1.1014924198389053e-01 1.9455991685390472e-01</leafValues></_></weakClassifiers></stage4>
</opencv_storage>
