<?xml version="1.0"?>
<opencv_storage>
<stage17>
  <maxWeakCount>100</maxWeakCount>
  <stageThreshold>-1.6841158866882324e+00</stageThreshold>
  <weakClassifiers>
    <_>
      <internalNodes>
        0 -1 69865 3.5611920058727264e-02</internalNodes>
      <leafValues>
        -7.6291638612747192e-01 -5.8714860677719116e-01</leafValues></_>
    <_>
      <internalNodes>
        0 -1 37799 1.9759624265134335e-03</internalNodes>
      <leafValues>
        -2.7326545119285583e-01 -2.4429511278867722e-02</leafValues></_>
    <_>
      <internalNodes>
        0 -1 3482 6.2975108623504639e-02</internalNodes>
      <leafValues>
        2.2113533690571785e-02 -4.6145927906036377e-01</leafValues></_>
    <_>
      <internalNodes>
        0 -1 3482 6.2948733568191528e-02</internalNodes>
      <leafValues>
        -4.7406868543475866e-04 1.</leafValues></_>
    <_>
      <internalNodes>
        0 -1 3482 6.2650501728057861e-02</internalNodes>
      <leafValues>
        6.6417036578059196e-04 -7.7506190538406372e-01</leafValues></_>
    <_>
      <internalNodes>
        0 -1 3482 6.2180481851100922e-02</internalNodes>
      <leafValues>
        -1.7583359731361270e-03 8.7657737731933594e-01</leafValues></_>
    <_>
      <internalNodes>
        0 -1 3482 6.2491379678249359e-02</internalNodes>
      <leafValues>
        -4.0648624417372048e-04 -8.1042164564132690e-01</leafValues></_>
    <_>
      <internalNodes>
        0 -1 5315 -1.8039718270301819e-03</internalNodes>
      <leafValues>
        -1.6594368219375610e-01 8.2077980041503906e-02</leafValues></_>
    <_>
      <internalNodes>
        0 -1 1457 -5.2308803424239159e-03</internalNodes>
      <leafValues>
        -1.8976834416389465e-01 4.3080411851406097e-02</leafValues></_>
    <_>
      <internalNodes>
        0 -1 43808 -4.5520486310124397e-05</internalNodes>
      <leafValues>
        9.2512652277946472e-02 -1.3291880488395691e-01</leafValues></_>
    <_>
      <internalNodes>
        0 -1 29125 -1.5205825865268707e-01</internalNodes>
      <leafValues>
        2.1533264219760895e-01 -4.0316078811883926e-02</leafValues></_>
    <_>
      <internalNodes>
        0 -1 5906 5.6303281337022781e-02</internalNodes>
      <leafValues>
        -8.1598728895187378e-02 2.1711117029190063e-01</leafValues></_>
    <_>
      <internalNodes>
        0 -1 33838 -6.3611539080739021e-03</internalNodes>
      <leafValues>
        1.2841705977916718e-01 -1.0913796722888947e-01</leafValues></_>
    <_>
      <internalNodes>
        0 -1 37079 -2.1010120399296284e-03</internalNodes>
      <leafValues>
        1.6090135276317596e-01 -6.7961394786834717e-02</leafValues></_>
    <_>
      <internalNodes>
        0 -1 37451 1.4776007737964392e-03</internalNodes>
      <leafValues>
        -6.8921044468879700e-02 1.6607733070850372e-01</leafValues></_>
    <_>
      <internalNodes>
        0 -1 58103 -2.7313816826790571e-04</internalNodes>
      <leafValues>
        -2.0129805803298950e-01 5.9851653873920441e-02</leafValues></_>
    <_>
      <internalNodes>
        0 -1 54109 1.2939751613885164e-03</internalNodes>
      <leafValues>
        4.9340493977069855e-02 -2.3901052772998810e-01</leafValues></_>
    <_>
      <internalNodes>
        0 -1 49488 5.3783981129527092e-03</internalNodes>
      <leafValues>
        -9.2880845069885254e-02 1.3577660918235779e-01</leafValues></_>
    <_>
      <internalNodes>
        0 -1 72887 -1.6356660053133965e-02</internalNodes>
      <leafValues>
        3.6768186092376709e-01 -2.8801796957850456e-02</leafValues></_>
    <_>
      <internalNodes>
        0 -1 70442 -3.9037485839799047e-04</internalNodes>
      <leafValues>
        1.0424873977899551e-01 -9.4244748353958130e-02</leafValues></_>
    <_>
      <internalNodes>
        0 -1 78356 -4.9433298408985138e-04</internalNodes>
      <leafValues>
        -1.8370535969734192e-01 5.5423747748136520e-02</leafValues></_>
    <_>
      <internalNodes>
        0 -1 77154 -2.1274911705404520e-03</internalNodes>
      <leafValues>
        1.6554759442806244e-01 -7.1596167981624603e-02</leafValues></_>
    <_>
      <internalNodes>
        0 -1 77080 -2.4314511101692915e-03</internalNodes>
      <leafValues>
        1.9577260315418243e-01 -7.0532143115997314e-02</leafValues></_>
    <_>
      <internalNodes>
        0 -1 75693 4.4878218322992325e-02</internalNodes>
      <leafValues>
        2.7688197791576385e-02 -4.0344446897506714e-01</leafValues></_>
    <_>
      <internalNodes>
        0 -1 76758 -5.6501589715480804e-03</internalNodes>
      <leafValues>
        2.2963449358940125e-01 -5.5815819650888443e-02</leafValues></_>
    <_>
      <internalNodes>
        0 -1 72085 -3.7058298476040363e-03</internalNodes>
      <leafValues>
        -2.5996965169906616e-01 3.9787653833627701e-02</leafValues></_>
    <_>
      <internalNodes>
        0 -1 71643 7.5480095110833645e-03</internalNodes>
      <leafValues>
        3.4434635192155838e-02 -2.9137173295021057e-01</leafValues></_>
    <_>
      <internalNodes>
        0 -1 38498 2.1487534046173096e-02</internalNodes>
      <leafValues>
        2.9117086902260780e-02 -3.4104025363922119e-01</leafValues></_>
    <_>
      <internalNodes>
        0 -1 52462 -3.3070363104343414e-02</internalNodes>
      <leafValues>
        1.9790177047252655e-01 -5.6581009179353714e-02</leafValues></_>
    <_>
      <internalNodes>
        0 -1 68532 8.0229865852743387e-04</internalNodes>
      <leafValues>
        -9.1377116739749908e-02 1.1790021508932114e-01</leafValues></_>
    <_>
      <internalNodes>
        0 -1 68249 -5.7056359946727753e-03</internalNodes>
      <leafValues>
        1.8383736908435822e-01 -5.7130780071020126e-02</leafValues></_>
    <_>
      <internalNodes>
        0 -1 19213 -2.8291305061429739e-03</internalNodes>
      <leafValues>
        2.2649896144866943e-01 -4.6061970293521881e-02</leafValues></_>
    <_>
      <internalNodes>
        0 -1 23512 -5.1791365258395672e-03</internalNodes>
      <leafValues>
        2.0956569910049438e-01 -5.2323974668979645e-02</leafValues></_>
    <_>
      <internalNodes>
        0 -1 17325 7.5304661877453327e-03</internalNodes>
      <leafValues>
        -6.0364190489053726e-02 1.8419070541858673e-01</leafValues></_>
    <_>
      <internalNodes>
        0 -1 35818 -1.2703937245532870e-03</internalNodes>
      <leafValues>
        -1.8307198584079742e-01 5.6109871715307236e-02</leafValues></_>
    <_>
      <internalNodes>
        0 -1 65434 7.1388599462807178e-04</internalNodes>
      <leafValues>
        3.8297601044178009e-02 -2.7904778718948364e-01</leafValues></_>
    <_>
      <internalNodes>
        0 -1 35818 2.1762566175311804e-03</internalNodes>
      <leafValues>
        4.6339742839336395e-02 -2.2108088433742523e-01</leafValues></_>
    <_>
      <internalNodes>
        0 -1 10835 4.1418052278459072e-03</internalNodes>
      <leafValues>
        -5.1379505544900894e-02 2.1767319738864899e-01</leafValues></_>
    <_>
      <internalNodes>
        0 -1 77100 -5.6565101258456707e-03</internalNodes>
      <leafValues>
        1.8316617608070374e-01 -5.2602611482143402e-02</leafValues></_>
    <_>
      <internalNodes>
        0 -1 76743 -7.2269827127456665e-02</internalNodes>
      <leafValues>
        -3.7860655784606934e-01 2.9190568253397942e-02</leafValues></_>
    <_>
      <internalNodes>
        0 -1 77118 2.9797945171594620e-03</internalNodes>
      <leafValues>
        -7.8703127801418304e-02 1.2397192418575287e-01</leafValues></_>
    <_>
      <internalNodes>
        0 -1 52481 5.3010014817118645e-03</internalNodes>
      <leafValues>
        -9.9080495536327362e-02 1.0969623178243637e-01</leafValues></_>
    <_>
      <internalNodes>
        0 -1 53058 -4.0558879263699055e-03</internalNodes>
      <leafValues>
        1.3212129473686218e-01 -9.4140671193599701e-02</leafValues></_>
    <_>
      <internalNodes>
        0 -1 58444 4.4104040716774762e-04</internalNodes>
      <leafValues>
        -9.5048412680625916e-02 1.1869888752698898e-01</leafValues></_>
    <_>
      <internalNodes>
        0 -1 44033 -1.6222860664129257e-02</internalNodes>
      <leafValues>
        -4.6086621284484863e-01 2.1288970485329628e-02</leafValues></_>
    <_>
      <internalNodes>
        0 -1 65810 1.8855775706470013e-03</internalNodes>
      <leafValues>
        5.1844067871570587e-02 -1.8585722148418427e-01</leafValues></_>
    <_>
      <internalNodes>
        0 -1 65810 -5.4082938004285097e-04</internalNodes>
      <leafValues>
        -1.5168865025043488e-01 6.6443525254726410e-02</leafValues></_>
    <_>
      <internalNodes>
        0 -1 75608 2.5751062203198671e-03</internalNodes>
      <leafValues>
        -7.5724393129348755e-02 1.4144305884838104e-01</leafValues></_>
    <_>
      <internalNodes>
        0 -1 75202 -2.0743790082633495e-03</internalNodes>
      <leafValues>
        1.3990671932697296e-01 -8.0072790384292603e-02</leafValues></_>
    <_>
      <internalNodes>
        0 -1 74674 7.6056295074522495e-03</internalNodes>
      <leafValues>
        1.5998918563127518e-02 -6.4000511169433594e-01</leafValues></_>
    <_>
      <internalNodes>
        0 -1 25816 3.7557847797870636e-02</internalNodes>
      <leafValues>
        1.0721730999648571e-02 -7.0966964960098267e-01</leafValues></_>
    <_>
      <internalNodes>
        0 -1 56739 7.7535705640912056e-03</internalNodes>
      <leafValues>
        3.5166066139936447e-02 -2.3235058784484863e-01</leafValues></_>
    <_>
      <internalNodes>
        0 -1 42850 6.6910117864608765e-02</internalNodes>
      <leafValues>
        -5.1545128226280212e-02 2.1682697534561157e-01</leafValues></_>
    <_>
      <internalNodes>
        0 -1 47643 -9.1215409338474274e-04</internalNodes>
      <leafValues>
        1.4384436607360840e-01 -8.0009996891021729e-02</leafValues></_>
    <_>
      <internalNodes>
        0 -1 52019 -6.4198747277259827e-03</internalNodes>
      <leafValues>
        -3.1750771403312683e-01 2.6727726683020592e-02</leafValues></_>
    <_>
      <internalNodes>
        0 -1 67043 -3.9302399381995201e-03</internalNodes>
      <leafValues>
        1.9066593050956726e-01 -4.4507417827844620e-02</leafValues></_>
    <_>
      <internalNodes>
        0 -1 67778 1.5243959613144398e-02</internalNodes>
      <leafValues>
        2.8370361775159836e-02 -3.5320121049880981e-01</leafValues></_>
    <_>
      <internalNodes>
        0 -1 69400 -2.0743801724165678e-03</internalNodes>
      <leafValues>
        -2.6292198896408081e-01 3.2627966254949570e-02</leafValues></_>
    <_>
      <internalNodes>
        0 -1 63545 -1.2182533740997314e-01</internalNodes>
      <leafValues>
        -1.9322365522384644e-01 4.6618856489658356e-02</leafValues></_>
    <_>
      <internalNodes>
        0 -1 64101 -2.2209929011296481e-04</internalNodes>
      <leafValues>
        1.1811561137437820e-01 -8.4719412028789520e-02</leafValues></_>
    <_>
      <internalNodes>
        0 -1 64101 -3.6828988231718540e-03</internalNodes>
      <leafValues>
        -4.8633885383605957e-01 1.9225845113396645e-02</leafValues></_>
    <_>
      <internalNodes>
        0 -1 64426 -5.5361282080411911e-02</internalNodes>
      <leafValues>
        -3.1527546048164368e-01 2.9229229316115379e-02</leafValues></_>
    <_>
      <internalNodes>
        0 -1 70145 -3.7866348866373301e-03</internalNodes>
      <leafValues>
        2.0822946727275848e-01 -4.5467924326658249e-02</leafValues></_>
    <_>
      <internalNodes>
        0 -1 49540 -3.9951267535798252e-04</internalNodes>
      <leafValues>
        1.1494641751050949e-01 -8.0012559890747070e-02</leafValues></_>
    <_>
      <internalNodes>
        0 -1 53884 3.5062670940533280e-04</internalNodes>
      <leafValues>
        -8.4005668759346008e-02 1.1835987865924835e-01</leafValues></_>
    <_>
      <internalNodes>
        0 -1 39632 2.2327466867864132e-03</internalNodes>
      <leafValues>
        -6.8806260824203491e-02 1.4209276437759399e-01</leafValues></_>
    <_>
      <internalNodes>
        0 -1 58485 1.9061820581555367e-02</internalNodes>
      <leafValues>
        -9.4113454222679138e-02 1.0499662160873413e-01</leafValues></_>
    <_>
      <internalNodes>
        0 -1 1440 -5.1300018094480038e-04</internalNodes>
      <leafValues>
        -1.4124280214309692e-01 6.7096345126628876e-02</leafValues></_>
    <_>
      <internalNodes>
        0 -1 2113 8.2355097401887178e-04</internalNodes>
      <leafValues>
        4.3748684227466583e-02 -2.6919445395469666e-01</leafValues></_>
    <_>
      <internalNodes>
        0 -1 9714 2.7569178491830826e-03</internalNodes>
      <leafValues>
        -6.0721185058355331e-02 1.8434053659439087e-01</leafValues></_>
    <_>
      <internalNodes>
        0 -1 16705 -2.1539437584578991e-03</internalNodes>
      <leafValues>
        2.4792915582656860e-01 -4.6772699803113937e-02</leafValues></_>
    <_>
      <internalNodes>
        0 -1 44353 -2.5164222344756126e-02</internalNodes>
      <leafValues>
        -2.3426002264022827e-01 3.8426764309406281e-02</leafValues></_>
    <_>
      <internalNodes>
        0 -1 49218 6.0711177065968513e-03</internalNodes>
      <leafValues>
        2.8694272041320801e-02 -3.4853097796440125e-01</leafValues></_>
    <_>
      <internalNodes>
        0 -1 77027 1.1292551644146442e-03</internalNodes>
      <leafValues>
        -7.9258270561695099e-02 1.1437164992094040e-01</leafValues></_>
    <_>
      <internalNodes>
        0 -1 64925 1.5180855989456177e-02</internalNodes>
      <leafValues>
        1.7685025930404663e-02 -5.0374346971511841e-01</leafValues></_>
    <_>
      <internalNodes>
        0 -1 3467 1.3728263787925243e-02</internalNodes>
      <leafValues>
        2.8205124661326408e-02 -2.9045739769935608e-01</leafValues></_>
    <_>
      <internalNodes>
        0 -1 21781 1.7616640543565154e-03</internalNodes>
      <leafValues>
        -7.1232974529266357e-02 1.2971317768096924e-01</leafValues></_>
    <_>
      <internalNodes>
        0 -1 40960 1.8672063946723938e-02</internalNodes>
      <leafValues>
        -6.1167906969785690e-02 1.4689911901950836e-01</leafValues></_>
    <_>
      <internalNodes>
        0 -1 20473 4.9634077586233616e-03</internalNodes>
      <leafValues>
        -7.0068679749965668e-02 1.2380824238061905e-01</leafValues></_>
    <_>
      <internalNodes>
        0 -1 32320 -7.7054738998413086e-02</internalNodes>
      <leafValues>
        1.1861460655927658e-01 -7.9148367047309875e-02</leafValues></_>
    <_>
      <internalNodes>
        0 -1 66009 -6.5458580851554871e-02</internalNodes>
      <leafValues>
        1.6781830787658691e-01 -6.9482967257499695e-02</leafValues></_>
    <_>
      <internalNodes>
        0 -1 74079 -4.0972251445055008e-02</internalNodes>
      <leafValues>
        -6.0641479492187500e-01 1.5761440619826317e-02</leafValues></_>
    <_>
      <internalNodes>
        0 -1 5531 -2.7454718947410583e-02</internalNodes>
      <leafValues>
        1.0175924748182297e-01 -9.2197902500629425e-02</leafValues></_>
    <_>
      <internalNodes>
        0 -1 26261 1.5011975541710854e-02</internalNodes>
      <leafValues>
        -5.6954201310873032e-02 1.6987222433090210e-01</leafValues></_>
    <_>
      <internalNodes>
        0 -1 62078 4.4005532981827855e-04</internalNodes>
      <leafValues>
        -8.5044458508491516e-02 1.1662661284208298e-01</leafValues></_>
    <_>
      <internalNodes>
        0 -1 35264 -1.3750518672168255e-02</internalNodes>
      <leafValues>
        -4.9290153384208679e-01 1.9110007211565971e-02</leafValues></_>
    <_>
      <internalNodes>
        0 -1 20345 -5.3782080067321658e-04</internalNodes>
      <leafValues>
        -1.1577694863080978e-01 7.9083897173404694e-02</leafValues></_>
    <_>
      <internalNodes>
        0 -1 21103 8.0516363959759474e-04</internalNodes>
      <leafValues>
        4.5158594846725464e-02 -2.0500005781650543e-01</leafValues></_>
    <_>
      <internalNodes>
        0 -1 57590 1.8665214884094894e-04</internalNodes>
      <leafValues>
        -7.2770595550537109e-02 1.2177259474992752e-01</leafValues></_>
    <_>
      <internalNodes>
        0 -1 57590 -1.8579445895738900e-04</internalNodes>
      <leafValues>
        1.2468233704566956e-01 -8.3726137876510620e-02</leafValues></_>
    <_>
      <internalNodes>
        0 -1 58350 3.7678121589124203e-04</internalNodes>
      <leafValues>
        5.0858568400144577e-02 -1.7797715961933136e-01</leafValues></_>
    <_>
      <internalNodes>
        0 -1 68347 -4.2081982828676701e-03</internalNodes>
      <leafValues>
        2.5280407071113586e-01 -3.5149402916431427e-02</leafValues></_>
    <_>
      <internalNodes>
        0 -1 64122 -1.7041854560375214e-02</internalNodes>
      <leafValues>
        -6.1286902427673340e-01 1.5259075909852982e-02</leafValues></_>
    <_>
      <internalNodes>
        0 -1 58231 -6.6555780358612537e-04</internalNodes>
      <leafValues>
        -2.1222321689128876e-01 4.0458761155605316e-02</leafValues></_>
    <_>
      <internalNodes>
        0 -1 16773 -4.2022116482257843e-02</internalNodes>
      <leafValues>
        -5.8461415767669678e-01 1.4147616922855377e-02</leafValues></_>
    <_>
      <internalNodes>
        0 -1 12215 -7.4882572516798973e-03</internalNodes>
      <leafValues>
        3.4794768691062927e-01 -2.8178814798593521e-02</leafValues></_>
    <_>
      <internalNodes>
        0 -1 68566 3.2462142407894135e-02</internalNodes>
      <leafValues>
        1.5411034226417542e-02 -5.9479504823684692e-01</leafValues></_>
    <_>
      <internalNodes>
        0 -1 60789 1.1049672029912472e-03</internalNodes>
      <leafValues>
        -7.1796871721744537e-02 1.3219405710697174e-01</leafValues></_>
    <_>
      <internalNodes>
        0 -1 31380 -1.2427671253681183e-01</internalNodes>
      <leafValues>
        -4.4907742738723755e-01 2.0509172230958939e-02</leafValues></_>
    <_>
      <internalNodes>
        0 -1 44140 -2.2489868104457855e-02</internalNodes>
      <leafValues>
        2.0286455750465393e-01 -4.8419017344713211e-02</leafValues></_></weakClassifiers></stage17>
</opencv_storage>
